0.015729837119579315 0.0264714527875185 0.03199867904186249 -0.11793272197246552 0.19901062548160553 0.05263391137123108 0.0959547832608223 -0.11182013154029846 -0.15962260961532593 0.19021250307559967 0.1428171694278717 0.004153325688093901 -0.3320808410644531 0.05078422650694847 0.02101677656173706 0.028470342978835106 0.24421995878219604 0.07925566285848618 -0.10516531765460968 0.03994835913181305 0.06784160435199738 0.05004354193806648 0.012804538011550903 0.1190933883190155 0.1260044425725937 -0.2782822847366333 0.12201286852359772 0.10042532533407211 -0.07044461369514465 0.11141590774059296 0.11451905965805054 0.06327410787343979 -0.21602214872837067 0.09179304540157318 0.15926097333431244 0.07211627811193466 0.10730539262294769 -0.19425596296787262 0.16004984080791473 -0.2487625777721405 -0.37965455651283264 0.23905794322490692 0.1171097457408905 0.08355561643838882 -0.17662391066551208 -0.31969428062438965 0.09086300432682037 0.11036749184131622 -0.09218320995569229 0.06943047791719437 0.06020837277173996 0.15631356835365295 0.11146806925535202 0.07831408083438873 0.03975974768400192 -0.1260865479707718 0.13421711325645447 0.06383827328681946 -0.09835751354694366 0.12239107489585876 0.06439525634050369 0.0896272286772728 0.01969202607870102 0.056313566863536835 -0.30797845125198364 0.25713852047920227 0.12233451008796692 -0.06405129283666611 -0.30958834290504456 -0.13587085902690887 0.12413126230239868 -0.2782785892486572 -0.20811446011066437 -0.2802751362323761 0.14716114103794098 -0.09464685618877411 0.09128062427043915 -0.14047740399837494 -0.20909591019153595 0.3120662569999695 -0.356641560792923 0.038994356989860535 -0.11675135791301727 0.09820728749036789 0.21621586382389069 -0.09421229362487793 0.07551771402359009 -0.14521855115890503 0.19204971194267273 0.025955304503440857 -0.16207833588123322 0.04658377543091774 -0.014907609671354294 0.020450711250305176 -0.25984546542167664 -0.11695374548435211 0.16688892245292664 -0.1555652618408203 0.1377754509449005 0.06843023002147675 0.1956586390733719 0.08366832882165909 -0.10301932692527771 -0.04633123800158501 0.12825262546539307 0.22937080264091492 0.08125128597021103 0.03375024348497391 -0.030146881937980652 -0.17052242159843445 -0.12891674041748047 -0.12687674164772034 0.19856926798820496 0.08220261335372925 -0.05380948260426521 0.23671098053455353 -0.12964975833892822 0.002058416837826371 0.07428399473428726 0.10684140026569366 0.017263192683458328 0.018632760271430016 -0.1395115852355957 0.053460706025362015 -0.025500373914837837 -0.08759062737226486 -0.016045693308115005 -0.05749513581395149 -0.056872326880693436 -0.06482037901878357 0.23591382801532745 0.06442292779684067 -0.041083838790655136 0.08101131021976471 0.1718040406703949 0.10455716401338577 -0.024148158729076385 -0.3402208387851715 0.0021553935948759317 0.23559969663619995 -0.06426232308149338 -0.11002412438392639 0.2053607851266861 -0.03267788887023926 0.20948190987110138 -0.0849376767873764 0.050688765943050385 0.14652235805988312 -0.06809677928686142 -0.06109395623207092 0.09630487859249115 -0.23204520344734192 0.031146051362156868 0.1364182084798813 -0.1652737706899643 0.14655233919620514 0.07983298599720001 -0.017217198386788368 0.15527412295341492 0.21078529953956604 -0.28864163160324097 0.19570520520210266 -0.23611706495285034 0.045100998133420944 -0.2392367124557495 -0.16094599664211273 -0.039093904197216034 0.01544832345098257 0.19308289885520935 -0.16488678753376007 -0.06165197119116783 0.2182111144065857 0.12169469147920609 0.17585042119026184 0.13794632256031036 0.004671784117817879 -0.26306888461112976 -0.06220212206244469 -0.051669277250766754 -0.24024227261543274 -0.0026751644909381866 -0.024141309782862663 0.05059229955077171 0.03087027743458748 0.026114575564861298 0.13773007690906525 0.13415130972862244 -0.08038141578435898 0.0378146730363369 0.05248689278960228 0.19030746817588806 -0.022504229098558426 0.33826902508735657 -0.23204955458641052 -0.01851624995470047 -0.11704570800065994 0.19494877755641937 0.006831397768110037 -0.2195856124162674 0.22985553741455078 0.12995922565460205 -0.04149791598320007 -0.23058824241161346 -0.261947363615036 0.12507261335849762 0.0012572883861139417 -0.10459540039300919 -0.33233168721199036 0.01806921511888504 0.05179162323474884 -0.11823172122240067 0.06899593770503998 -0.16765719652175903 -0.08967123925685883 -0.15489117801189423 0.18604633212089539 -0.21973417699337006 0.006048966199159622 0.10230672359466553 -0.09949242323637009 0.14254997670650482 -0.11356699466705322 -0.12079210579395294 -0.3489426076412201 0.265339732170105 -0.3018086850643158 -0.15687336027622223 0.14678442478179932 -0.08510272949934006 0.1040525883436203 -0.36509403586387634 0.04067488759756088 0.249749094247818 -0.2917162775993347 -0.29020148515701294 -0.25817906856536865 0.1473071426153183 0.28900399804115295 0.04706734046339989 -0.38292810320854187 0.17286710441112518 0.14129693806171417 0.11153337359428406 -0.21118512749671936 -0.21104300022125244 -0.0017787067918106914 -0.024134427309036255 -0.05548667162656784 -0.28167906403541565 0.04839041829109192 0.21010254323482513 0.1913885921239853 -0.011201179586350918 0.046502403914928436 0.09133637696504593 0.048359308391809464 0.05399012193083763 0.08962767571210861 -0.26967108249664307 -0.006503867916762829 -0.3087276816368103 0.11546885967254639 -0.34464386105537415 0.23454339802265167 -0.016888093203306198 0.2629324495792389 -0.06021721661090851 -0.014647327363491058 0.10787040740251541 0.19469384849071503 -0.11196776479482651 -0.3424704968929291 -0.02464022859930992 -0.07456585764884949 0.021093590185046196 -0.26731157302856445 -0.21192950010299683 0.053747616708278656 0.02744651399552822 0.09712796658277512 -0.15378038585186005 -0.17165392637252808 -0.08931117504835129 0.02532646805047989 -0.19163793325424194 0.13583312928676605 -0.027981450781226158 0.2211485058069229
